digraph Tree {
node [shape=box, fontname="helvetica"] ;
edge [fontname="helvetica"] ;
0 [label="X[3] <= 0.75\ngini = 0.667\nsamples = 120\nvalue = [40, 40, 40]"] ;
1 [label="gini = 0.0\nsamples = 40\nvalue = [40, 0, 0]"] ;
0 -> 1 [labeldistance=2.5, labelangle=45, headlabel="True"] ;
2 [label="X[3] <= 1.75\ngini = 0.5\nsamples = 80\nvalue = [0, 40, 40]"] ;
0 -> 2 [labeldistance=2.5, labelangle=-45, headlabel="False"] ;
3 [label="X[2] <= 4.95\ngini = 0.201\nsamples = 44\nvalue = [0, 39, 5]"] ;
2 -> 3 ;
4 [label="gini = 0.051\nsamples = 38\nvalue = [0, 37, 1]"] ;
3 -> 4 ;
5 [label="gini = 0.444\nsamples = 6\nvalue = [0, 2, 4]"] ;
3 -> 5 ;
6 [label="X[2] <= 4.85\ngini = 0.054\nsamples = 36\nvalue = [0, 1, 35]"] ;
2 -> 6 ;
7 [label="gini = 0.5\nsamples = 2\nvalue = [0, 1, 1]"] ;
6 -> 7 ;
8 [label="gini = 0.0\nsamples = 34\nvalue = [0, 0, 34]"] ;
6 -> 8 ;
}